
\data\
ngram 1=13
ngram 2=17

\1-grams:
-0.8750613	</s>
-99	<s>	-0.1249387
-1	a	-0.0669468
-1.176091	bible	-0.01040277
-1	book	-0.04921804
-1.176091	brown	-0.01040277
-1.176091	by	-0.04258745
-1.176091	david	-0.01040277
-1.176091	he	-0.01040277
-1.176091	holy	-0.04258745
-1.176091	mark	-0.01040277
-0.8750613	read	-0.09691001
-1.176091	text	-0.02679318

\2-grams:
-0.8750613	<s> brown
-0.8750613	<s> he
-0.8750613	<s> mark
-0.845098	a book
-0.845098	a text
-0.8129134	bible </s>
-0.845098	book </s>
-0.845098	book by
-0.8129134	brown read
-0.8129134	by david
-0.8129134	david </s>
-0.8129134	he read
-0.8129134	holy bible
-0.8129134	mark read
-0.69897	read a
-0.8750613	read holy
-0.8129134	text book

\end\
